digraph Tree {
node [shape=box, style="filled, rounded", color="black", fontname="helvetica"] ;
edge [fontname="helvetica"] ;
0 [label="adult_male <= 0.5\ngini = 0.469\nsamples = 712\nvalue = [444, 268]", fillcolor="#f5cdb1"] ;
1 [label="pclass <= 2.5\ngini = 0.411\nsamples = 280\nvalue = [81.0, 199.0]", fillcolor="#8ac5f0"] ;
0 -> 1 [labeldistance=2.5, labelangle=45, headlabel="True"] ;
2 [label="fare <= 149.035\ngini = 0.069\nsamples = 140\nvalue = [5, 135]", fillcolor="#40a1e6"] ;
1 -> 2 ;
3 [label="fare <= 29.356\ngini = 0.048\nsamples = 122\nvalue = [3, 119]", fillcolor="#3e9fe6"] ;
2 -> 3 ;
4 [label="fare <= 28.231\ngini = 0.094\nsamples = 61\nvalue = [3, 58]", fillcolor="#43a2e6"] ;
3 -> 4 ;
5 [label="age <= 27.5\ngini = 0.064\nsamples = 60\nvalue = [2, 58]", fillcolor="#40a0e6"] ;
4 -> 5 ;
6 [label="age <= 23.5\ngini = 0.142\nsamples = 26\nvalue = [2, 24]", fillcolor="#49a5e7"] ;
5 -> 6 ;
7 [label="gini = 0.0\nsamples = 16\nvalue = [0, 16]", fillcolor="#399de5"] ;
6 -> 7 ;
8 [label="parch <= 0.5\ngini = 0.32\nsamples = 10\nvalue = [2, 8]", fillcolor="#6ab6ec"] ;
6 -> 8 ;
9 [label="embarked <= 1.0\ngini = 0.444\nsamples = 6\nvalue = [2, 4]", fillcolor="#9ccef2"] ;
8 -> 9 ;
10 [label="gini = 0.0\nsamples = 1\nvalue = [0, 1]", fillcolor="#399de5"] ;
9 -> 10 ;
11 [label="fare <= 11.75\ngini = 0.48\nsamples = 5\nvalue = [2, 3]", fillcolor="#bddef6"] ;
9 -> 11 ;
12 [label="gini = 0.0\nsamples = 1\nvalue = [0, 1]", fillcolor="#399de5"] ;
11 -> 12 ;
13 [label="age <= 25.5\ngini = 0.5\nsamples = 4\nvalue = [2, 2]", fillcolor="#ffffff"] ;
11 -> 13 ;
14 [label="alone <= 0.5\ngini = 0.444\nsamples = 3\nvalue = [1, 2]", fillcolor="#9ccef2"] ;
13 -> 14 ;
15 [label="gini = 0.0\nsamples = 1\nvalue = [0, 1]", fillcolor="#399de5"] ;
14 -> 15 ;
16 [label="gini = 0.5\nsamples = 2\nvalue = [1, 1]", fillcolor="#ffffff"] ;
14 -> 16 ;
17 [label="gini = 0.0\nsamples = 1\nvalue = [1, 0]", fillcolor="#e58139"] ;
13 -> 17 ;
18 [label="gini = 0.0\nsamples = 4\nvalue = [0, 4]", fillcolor="#399de5"] ;
8 -> 18 ;
19 [label="gini = 0.0\nsamples = 34\nvalue = [0, 34]", fillcolor="#399de5"] ;
5 -> 19 ;
20 [label="gini = 0.0\nsamples = 1\nvalue = [1, 0]", fillcolor="#e58139"] ;
4 -> 20 ;
21 [label="gini = 0.0\nsamples = 61\nvalue = [0, 61]", fillcolor="#399de5"] ;
3 -> 21 ;
22 [label="fare <= 152.506\ngini = 0.198\nsamples = 18\nvalue = [2, 16]", fillcolor="#52a9e8"] ;
2 -> 22 ;
23 [label="sex <= 0.5\ngini = 0.5\nsamples = 4\nvalue = [2, 2]", fillcolor="#ffffff"] ;
22 -> 23 ;
24 [label="alone <= 0.5\ngini = 0.444\nsamples = 3\nvalue = [2, 1]", fillcolor="#f2c09c"] ;
23 -> 24 ;
25 [label="gini = 0.0\nsamples = 2\nvalue = [2, 0]", fillcolor="#e58139"] ;
24 -> 25 ;
26 [label="gini = 0.0\nsamples = 1\nvalue = [0, 1]", fillcolor="#399de5"] ;
24 -> 26 ;
27 [label="gini = 0.0\nsamples = 1\nvalue = [0, 1]", fillcolor="#399de5"] ;
23 -> 27 ;
28 [label="gini = 0.0\nsamples = 14\nvalue = [0, 14]", fillcolor="#399de5"] ;
22 -> 28 ;
29 [label="fare <= 23.35\ngini = 0.496\nsamples = 140\nvalue = [76, 64]", fillcolor="#fbebe0"] ;
1 -> 29 ;
30 [label="age <= 1.5\ngini = 0.482\nsamples = 104\nvalue = [42, 62]", fillcolor="#bfdff7"] ;
29 -> 30 ;
31 [label="gini = 0.0\nsamples = 6\nvalue = [0, 6]", fillcolor="#399de5"] ;
30 -> 31 ;
32 [label="fare <= 21.55\ngini = 0.49\nsamples = 98\nvalue = [42, 56]", fillcolor="#cee6f8"] ;
30 -> 32 ;
33 [label="fare <= 20.8\ngini = 0.494\nsamples = 94\nvalue = [42, 52]", fillcolor="#d9ecfa"] ;
32 -> 33 ;
34 [label="fare <= 15.373\ngini = 0.488\nsamples = 90\nvalue = [38.0, 52.0]", fillcolor="#cae5f8"] ;
33 -> 34 ;
35 [label="fare <= 13.908\ngini = 0.498\nsamples = 72\nvalue = [34, 38]", fillcolor="#eaf5fc"] ;
34 -> 35 ;
36 [label="fare <= 10.825\ngini = 0.488\nsamples = 64\nvalue = [27, 37]", fillcolor="#c9e5f8"] ;
35 -> 36 ;
37 [label="fare <= 8.04\ngini = 0.499\nsamples = 56\nvalue = [27.0, 29.0]", fillcolor="#f1f8fd"] ;
36 -> 37 ;
38 [label="alone <= 0.5\ngini = 0.45\nsamples = 38\nvalue = [13, 25]", fillcolor="#a0d0f3"] ;
37 -> 38 ;
39 [label="sibsp <= 2.5\ngini = 0.375\nsamples = 4\nvalue = [3, 1]", fillcolor="#eeab7b"] ;
38 -> 39 ;
40 [label="gini = 0.0\nsamples = 3\nvalue = [3, 0]", fillcolor="#e58139"] ;
39 -> 40 ;
41 [label="gini = 0.0\nsamples = 1\nvalue = [0, 1]", fillcolor="#399de5"] ;
39 -> 41 ;
42 [label="fare <= 6.987\ngini = 0.415\nsamples = 34\nvalue = [10, 24]", fillcolor="#8bc6f0"] ;
38 -> 42 ;
43 [label="gini = 0.0\nsamples = 1\nvalue = [1, 0]", fillcolor="#e58139"] ;
42 -> 43 ;
44 [label="fare <= 7.744\ngini = 0.397\nsamples = 33\nvalue = [9, 24]", fillcolor="#83c2ef"] ;
42 -> 44 ;
45 [label="fare <= 7.59\ngini = 0.153\nsamples = 12\nvalue = [1, 11]", fillcolor="#4ba6e7"] ;
44 -> 45 ;
46 [label="gini = 0.0\nsamples = 7\nvalue = [0, 7]", fillcolor="#399de5"] ;
45 -> 46 ;
47 [label="fare <= 7.64\ngini = 0.32\nsamples = 5\nvalue = [1, 4]", fillcolor="#6ab6ec"] ;
45 -> 47 ;
48 [label="gini = 0.0\nsamples = 1\nvalue = [1, 0]", fillcolor="#e58139"] ;
47 -> 48 ;
49 [label="gini = 0.0\nsamples = 4\nvalue = [0, 4]", fillcolor="#399de5"] ;
47 -> 49 ;
50 [label="embarked <= 1.5\ngini = 0.472\nsamples = 21\nvalue = [8, 13]", fillcolor="#b3d9f5"] ;
44 -> 50 ;
51 [label="age <= 21.5\ngini = 0.298\nsamples = 11\nvalue = [2, 9]", fillcolor="#65b3eb"] ;
50 -> 51 ;
52 [label="fare <= 7.89\ngini = 0.5\nsamples = 2\nvalue = [1, 1]", fillcolor="#ffffff"] ;
51 -> 52 ;
53 [label="gini = 0.0\nsamples = 1\nvalue = [1, 0]", fillcolor="#e58139"] ;
52 -> 53 ;
54 [label="gini = 0.0\nsamples = 1\nvalue = [0, 1]", fillcolor="#399de5"] ;
52 -> 54 ;
55 [label="fare <= 7.815\ngini = 0.198\nsamples = 9\nvalue = [1, 8]", fillcolor="#52a9e8"] ;
51 -> 55 ;
56 [label="age <= 25.0\ngini = 0.245\nsamples = 7\nvalue = [1, 6]", fillcolor="#5aade9"] ;
55 -> 56 ;
57 [label="gini = 0.0\nsamples = 1\nvalue = [0, 1]", fillcolor="#399de5"] ;
56 -> 57 ;
58 [label="gini = 0.278\nsamples = 6\nvalue = [1, 5]", fillcolor="#61b1ea"] ;
56 -> 58 ;
59 [label="gini = 0.0\nsamples = 2\nvalue = [0, 2]", fillcolor="#399de5"] ;
55 -> 59 ;
60 [label="age <= 25.5\ngini = 0.48\nsamples = 10\nvalue = [6, 4]", fillcolor="#f6d5bd"] ;
50 -> 60 ;
61 [label="age <= 20.0\ngini = 0.32\nsamples = 5\nvalue = [4, 1]", fillcolor="#eca06a"] ;
60 -> 61 ;
62 [label="gini = 0.0\nsamples = 2\nvalue = [2, 0]", fillcolor="#e58139"] ;
61 -> 62 ;
63 [label="age <= 22.5\ngini = 0.444\nsamples = 3\nvalue = [2, 1]", fillcolor="#f2c09c"] ;
61 -> 63 ;
64 [label="gini = 0.0\nsamples = 1\nvalue = [0, 1]", fillcolor="#399de5"] ;
63 -> 64 ;
65 [label="gini = 0.0\nsamples = 2\nvalue = [2, 0]", fillcolor="#e58139"] ;
63 -> 65 ;
66 [label="age <= 27.5\ngini = 0.48\nsamples = 5\nvalue = [2, 3]", fillcolor="#bddef6"] ;
60 -> 66 ;
67 [label="gini = 0.0\nsamples = 3\nvalue = [0, 3]", fillcolor="#399de5"] ;
66 -> 67 ;
68 [label="gini = 0.0\nsamples = 2\nvalue = [2, 0]", fillcolor="#e58139"] ;
66 -> 68 ;
69 [label="age <= 19.0\ngini = 0.346\nsamples = 18\nvalue = [14, 4]", fillcolor="#eca572"] ;
37 -> 69 ;
70 [label="age <= 10.0\ngini = 0.444\nsamples = 3\nvalue = [1, 2]", fillcolor="#9ccef2"] ;
69 -> 70 ;
71 [label="gini = 0.0\nsamples = 1\nvalue = [1, 0]", fillcolor="#e58139"] ;
70 -> 71 ;
72 [label="gini = 0.0\nsamples = 2\nvalue = [0, 2]", fillcolor="#399de5"] ;
70 -> 72 ;
73 [label="age <= 51.5\ngini = 0.231\nsamples = 15\nvalue = [13, 2]", fillcolor="#e99457"] ;
69 -> 73 ;
74 [label="age <= 30.5\ngini = 0.133\nsamples = 14\nvalue = [13, 1]", fillcolor="#e78b48"] ;
73 -> 74 ;
75 [label="gini = 0.0\nsamples = 11\nvalue = [11, 0]", fillcolor="#e58139"] ;
74 -> 75 ;
76 [label="fare <= 9.079\ngini = 0.444\nsamples = 3\nvalue = [2, 1]", fillcolor="#f2c09c"] ;
74 -> 76 ;
77 [label="gini = 0.0\nsamples = 1\nvalue = [0, 1]", fillcolor="#399de5"] ;
76 -> 77 ;
78 [label="gini = 0.0\nsamples = 2\nvalue = [2, 0]", fillcolor="#e58139"] ;
76 -> 78 ;
79 [label="gini = 0.0\nsamples = 1\nvalue = [0, 1]", fillcolor="#399de5"] ;
73 -> 79 ;
80 [label="gini = 0.0\nsamples = 8\nvalue = [0, 8]", fillcolor="#399de5"] ;
36 -> 80 ;
81 [label="fare <= 14.873\ngini = 0.219\nsamples = 8\nvalue = [7, 1]", fillcolor="#e99355"] ;
35 -> 81 ;
82 [label="gini = 0.0\nsamples = 6\nvalue = [6, 0]", fillcolor="#e58139"] ;
81 -> 82 ;
83 [label="age <= 28.5\ngini = 0.5\nsamples = 2\nvalue = [1, 1]", fillcolor="#ffffff"] ;
81 -> 83 ;
84 [label="gini = 0.0\nsamples = 1\nvalue = [1, 0]", fillcolor="#e58139"] ;
83 -> 84 ;
85 [label="gini = 0.0\nsamples = 1\nvalue = [0, 1]", fillcolor="#399de5"] ;
83 -> 85 ;
86 [label="fare <= 17.7\ngini = 0.346\nsamples = 18\nvalue = [4, 14]", fillcolor="#72b9ec"] ;
34 -> 86 ;
87 [label="age <= 27.0\ngini = 0.153\nsamples = 12\nvalue = [1, 11]", fillcolor="#4ba6e7"] ;
86 -> 87 ;
88 [label="age <= 25.0\ngini = 0.32\nsamples = 5\nvalue = [1, 4]", fillcolor="#6ab6ec"] ;
87 -> 88 ;
89 [label="gini = 0.0\nsamples = 4\nvalue = [0, 4]", fillcolor="#399de5"] ;
88 -> 89 ;
90 [label="gini = 0.0\nsamples = 1\nvalue = [1, 0]", fillcolor="#e58139"] ;
88 -> 90 ;
91 [label="gini = 0.0\nsamples = 7\nvalue = [0, 7]", fillcolor="#399de5"] ;
87 -> 91 ;
92 [label="fare <= 19.023\ngini = 0.5\nsamples = 6\nvalue = [3, 3]", fillcolor="#ffffff"] ;
86 -> 92 ;
93 [label="gini = 0.0\nsamples = 3\nvalue = [3, 0]", fillcolor="#e58139"] ;
92 -> 93 ;
94 [label="gini = 0.0\nsamples = 3\nvalue = [0, 3]", fillcolor="#399de5"] ;
92 -> 94 ;
95 [label="gini = 0.0\nsamples = 4\nvalue = [4, 0]", fillcolor="#e58139"] ;
33 -> 95 ;
96 [label="gini = 0.0\nsamples = 4\nvalue = [0, 4]", fillcolor="#399de5"] ;
32 -> 96 ;
97 [label="age <= 5.5\ngini = 0.105\nsamples = 36\nvalue = [34, 2]", fillcolor="#e78845"] ;
29 -> 97 ;
98 [label="age <= 4.5\ngini = 0.32\nsamples = 10\nvalue = [8, 2]", fillcolor="#eca06a"] ;
97 -> 98 ;
99 [label="age <= 2.5\ngini = 0.198\nsamples = 9\nvalue = [8, 1]", fillcolor="#e89152"] ;
98 -> 99 ;
100 [label="gini = 0.0\nsamples = 6\nvalue = [6, 0]", fillcolor="#e58139"] ;
99 -> 100 ;
101 [label="age <= 3.5\ngini = 0.444\nsamples = 3\nvalue = [2, 1]", fillcolor="#f2c09c"] ;
99 -> 101 ;
102 [label="gini = 0.0\nsamples = 1\nvalue = [0, 1]", fillcolor="#399de5"] ;
101 -> 102 ;
103 [label="gini = 0.0\nsamples = 2\nvalue = [2, 0]", fillcolor="#e58139"] ;
101 -> 103 ;
104 [label="gini = 0.0\nsamples = 1\nvalue = [0, 1]", fillcolor="#399de5"] ;
98 -> 104 ;
105 [label="gini = 0.0\nsamples = 26\nvalue = [26, 0]", fillcolor="#e58139"] ;
97 -> 105 ;
106 [label="fare <= 26.269\ngini = 0.268\nsamples = 432\nvalue = [363, 69]", fillcolor="#ea995f"] ;
0 -> 106 [labeldistance=2.5, labelangle=-45, headlabel="False"] ;
107 [label="embark_town <= 0.5\ngini = 0.192\nsamples = 325\nvalue = [290, 35]", fillcolor="#e89051"] ;
106 -> 107 ;
108 [label="age <= 22.5\ngini = 0.32\nsamples = 35\nvalue = [28, 7]", fillcolor="#eca06a"] ;
107 -> 108 ;
109 [label="fare <= 5.619\ngini = 0.48\nsamples = 5\nvalue = [2, 3]", fillcolor="#bddef6"] ;
108 -> 109 ;
110 [label="gini = 0.0\nsamples = 1\nvalue = [1, 0]", fillcolor="#e58139"] ;
109 -> 110 ;
111 [label="age <= 21.0\ngini = 0.375\nsamples = 4\nvalue = [1, 3]", fillcolor="#7bbeee"] ;
109 -> 111 ;
112 [label="gini = 0.0\nsamples = 2\nvalue = [0, 2]", fillcolor="#399de5"] ;
111 -> 112 ;
113 [label="fare <= 7.227\ngini = 0.5\nsamples = 2\nvalue = [1, 1]", fillcolor="#ffffff"] ;
111 -> 113 ;
114 [label="gini = 0.0\nsamples = 1\nvalue = [0, 1]", fillcolor="#399de5"] ;
113 -> 114 ;
115 [label="gini = 0.0\nsamples = 1\nvalue = [1, 0]", fillcolor="#e58139"] ;
113 -> 115 ;
116 [label="fare <= 7.227\ngini = 0.231\nsamples = 30\nvalue = [26, 4]", fillcolor="#e99457"] ;
108 -> 116 ;
117 [label="gini = 0.0\nsamples = 8\nvalue = [8, 0]", fillcolor="#e58139"] ;
116 -> 117 ;
118 [label="age <= 29.5\ngini = 0.298\nsamples = 22\nvalue = [18, 4]", fillcolor="#eb9d65"] ;
116 -> 118 ;
119 [label="age <= 28.75\ngini = 0.36\nsamples = 17\nvalue = [13, 4]", fillcolor="#eda876"] ;
118 -> 119 ;
120 [label="fare <= 16.919\ngini = 0.305\nsamples = 16\nvalue = [13, 3]", fillcolor="#eb9e67"] ;
119 -> 120 ;
121 [label="pclass <= 2.5\ngini = 0.245\nsamples = 14\nvalue = [12, 2]", fillcolor="#e9965a"] ;
120 -> 121 ;
122 [label="fare <= 14.454\ngini = 0.444\nsamples = 3\nvalue = [2, 1]", fillcolor="#f2c09c"] ;
121 -> 122 ;
123 [label="gini = 0.0\nsamples = 1\nvalue = [0, 1]", fillcolor="#399de5"] ;
122 -> 123 ;
124 [label="gini = 0.0\nsamples = 2\nvalue = [2, 0]", fillcolor="#e58139"] ;
122 -> 124 ;
125 [label="fare <= 7.562\ngini = 0.165\nsamples = 11\nvalue = [10, 1]", fillcolor="#e88e4d"] ;
121 -> 125 ;
126 [label="age <= 28.25\ngini = 0.245\nsamples = 7\nvalue = [6, 1]", fillcolor="#e9965a"] ;
125 -> 126 ;
127 [label="gini = 0.278\nsamples = 6\nvalue = [5, 1]", fillcolor="#ea9a61"] ;
126 -> 127 ;
128 [label="gini = 0.0\nsamples = 1\nvalue = [1, 0]", fillcolor="#e58139"] ;
126 -> 128 ;
129 [label="gini = 0.0\nsamples = 4\nvalue = [4, 0]", fillcolor="#e58139"] ;
125 -> 129 ;
130 [label="alone <= 0.5\ngini = 0.5\nsamples = 2\nvalue = [1, 1]", fillcolor="#ffffff"] ;
120 -> 130 ;
131 [label="gini = 0.0\nsamples = 1\nvalue = [1, 0]", fillcolor="#e58139"] ;
130 -> 131 ;
132 [label="gini = 0.0\nsamples = 1\nvalue = [0, 1]", fillcolor="#399de5"] ;
130 -> 132 ;
133 [label="gini = 0.0\nsamples = 1\nvalue = [0, 1]", fillcolor="#399de5"] ;
119 -> 133 ;
134 [label="gini = 0.0\nsamples = 5\nvalue = [5, 0]", fillcolor="#e58139"] ;
118 -> 134 ;
135 [label="fare <= 13.25\ngini = 0.174\nsamples = 290\nvalue = [262, 28]", fillcolor="#e88e4e"] ;
107 -> 135 ;
136 [label="fare <= 7.746\ngini = 0.199\nsamples = 232\nvalue = [206, 26]", fillcolor="#e89152"] ;
135 -> 136 ;
137 [label="age <= 27.5\ngini = 0.111\nsamples = 51\nvalue = [48, 3]", fillcolor="#e78945"] ;
136 -> 137 ;
138 [label="age <= 23.0\ngini = 0.255\nsamples = 20\nvalue = [17, 3]", fillcolor="#ea975c"] ;
137 -> 138 ;
139 [label="gini = 0.0\nsamples = 13\nvalue = [13, 0]", fillcolor="#e58139"] ;
138 -> 139 ;
140 [label="fare <= 7.013\ngini = 0.49\nsamples = 7\nvalue = [4, 3]", fillcolor="#f8e0ce"] ;
138 -> 140 ;
141 [label="gini = 0.0\nsamples = 2\nvalue = [0, 2]", fillcolor="#399de5"] ;
140 -> 141 ;
142 [label="age <= 24.5\ngini = 0.32\nsamples = 5\nvalue = [4, 1]", fillcolor="#eca06a"] ;
140 -> 142 ;
143 [label="gini = 0.0\nsamples = 1\nvalue = [0, 1]", fillcolor="#399de5"] ;
142 -> 143 ;
144 [label="gini = 0.0\nsamples = 4\nvalue = [4, 0]", fillcolor="#e58139"] ;
142 -> 144 ;
145 [label="gini = 0.0\nsamples = 31\nvalue = [31, 0]", fillcolor="#e58139"] ;
137 -> 145 ;
146 [label="fare <= 7.798\ngini = 0.222\nsamples = 181\nvalue = [158, 23]", fillcolor="#e99356"] ;
136 -> 146 ;
147 [label="age <= 30.0\ngini = 0.312\nsamples = 31\nvalue = [25, 6]", fillcolor="#eb9f69"] ;
146 -> 147 ;
148 [label="age <= 28.5\ngini = 0.386\nsamples = 23\nvalue = [17, 6]", fillcolor="#eead7f"] ;
147 -> 148 ;
149 [label="fare <= 7.763\ngini = 0.351\nsamples = 22\nvalue = [17, 5]", fillcolor="#eda673"] ;
148 -> 149 ;
150 [label="alone <= 0.5\ngini = 0.18\nsamples = 10\nvalue = [9, 1]", fillcolor="#e88f4f"] ;
149 -> 150 ;
151 [label="gini = 0.0\nsamples = 1\nvalue = [1, 0]", fillcolor="#e58139"] ;
150 -> 151 ;
152 [label="embarked <= 1.5\ngini = 0.198\nsamples = 9\nvalue = [8, 1]", fillcolor="#e89152"] ;
150 -> 152 ;
153 [label="gini = 0.219\nsamples = 8\nvalue = [7, 1]", fillcolor="#e99355"] ;
152 -> 153 ;
154 [label="gini = 0.0\nsamples = 1\nvalue = [1, 0]", fillcolor="#e58139"] ;
152 -> 154 ;
155 [label="sibsp <= 0.5\ngini = 0.444\nsamples = 12\nvalue = [8, 4]", fillcolor="#f2c09c"] ;
149 -> 155 ;
156 [label="age <= 26.5\ngini = 0.397\nsamples = 11\nvalue = [8, 3]", fillcolor="#efb083"] ;
155 -> 156 ;
157 [label="fare <= 7.785\ngini = 0.245\nsamples = 7\nvalue = [6, 1]", fillcolor="#e9965a"] ;
156 -> 157 ;
158 [label="gini = 0.0\nsamples = 4\nvalue = [4, 0]", fillcolor="#e58139"] ;
157 -> 158 ;
159 [label="age <= 21.5\ngini = 0.444\nsamples = 3\nvalue = [2, 1]", fillcolor="#f2c09c"] ;
157 -> 159 ;
160 [label="gini = 0.0\nsamples = 1\nvalue = [0, 1]", fillcolor="#399de5"] ;
159 -> 160 ;
161 [label="gini = 0.0\nsamples = 2\nvalue = [2, 0]", fillcolor="#e58139"] ;
159 -> 161 ;
162 [label="age <= 27.5\ngini = 0.5\nsamples = 4\nvalue = [2, 2]", fillcolor="#ffffff"] ;
156 -> 162 ;
163 [label="gini = 0.0\nsamples = 1\nvalue = [0, 1]", fillcolor="#399de5"] ;
162 -> 163 ;
164 [label="fare <= 7.785\ngini = 0.444\nsamples = 3\nvalue = [2, 1]", fillcolor="#f2c09c"] ;
162 -> 164 ;
165 [label="gini = 0.5\nsamples = 2\nvalue = [1, 1]", fillcolor="#ffffff"] ;
164 -> 165 ;
166 [label="gini = 0.0\nsamples = 1\nvalue = [1, 0]", fillcolor="#e58139"] ;
164 -> 166 ;
167 [label="gini = 0.0\nsamples = 1\nvalue = [0, 1]", fillcolor="#399de5"] ;
155 -> 167 ;
168 [label="gini = 0.0\nsamples = 1\nvalue = [0, 1]", fillcolor="#399de5"] ;
148 -> 168 ;
169 [label="gini = 0.0\nsamples = 8\nvalue = [8, 0]", fillcolor="#e58139"] ;
147 -> 169 ;
170 [label="age <= 30.5\ngini = 0.201\nsamples = 150\nvalue = [133, 17]", fillcolor="#e89152"] ;
146 -> 170 ;
171 [label="fare <= 7.91\ngini = 0.143\nsamples = 103\nvalue = [95.0, 8.0]", fillcolor="#e78c4a"] ;
170 -> 171 ;
172 [label="gini = 0.0\nsamples = 29\nvalue = [29, 0]", fillcolor="#e58139"] ;
171 -> 172 ;
173 [label="age <= 20.5\ngini = 0.193\nsamples = 74\nvalue = [66, 8]", fillcolor="#e89051"] ;
171 -> 173 ;
174 [label="fare <= 8.175\ngini = 0.298\nsamples = 22\nvalue = [18, 4]", fillcolor="#eb9d65"] ;
173 -> 174 ;
175 [label="sibsp <= 0.5\ngini = 0.5\nsamples = 6\nvalue = [3, 3]", fillcolor="#ffffff"] ;
174 -> 175 ;
176 [label="age <= 19.5\ngini = 0.48\nsamples = 5\nvalue = [3, 2]", fillcolor="#f6d5bd"] ;
175 -> 176 ;
177 [label="age <= 17.5\ngini = 0.5\nsamples = 4\nvalue = [2, 2]", fillcolor="#ffffff"] ;
176 -> 177 ;
178 [label="gini = 0.5\nsamples = 2\nvalue = [1, 1]", fillcolor="#ffffff"] ;
177 -> 178 ;
179 [label="gini = 0.5\nsamples = 2\nvalue = [1, 1]", fillcolor="#ffffff"] ;
177 -> 179 ;
180 [label="gini = 0.0\nsamples = 1\nvalue = [1, 0]", fillcolor="#e58139"] ;
176 -> 180 ;
181 [label="gini = 0.0\nsamples = 1\nvalue = [0, 1]", fillcolor="#399de5"] ;
175 -> 181 ;
182 [label="age <= 18.5\ngini = 0.117\nsamples = 16\nvalue = [15, 1]", fillcolor="#e78946"] ;
174 -> 182 ;
183 [label="gini = 0.0\nsamples = 10\nvalue = [10, 0]", fillcolor="#e58139"] ;
182 -> 183 ;
184 [label="pclass <= 2.5\ngini = 0.278\nsamples = 6\nvalue = [5, 1]", fillcolor="#ea9a61"] ;
182 -> 184 ;
185 [label="fare <= 11.75\ngini = 0.444\nsamples = 3\nvalue = [2, 1]", fillcolor="#f2c09c"] ;
184 -> 185 ;
186 [label="gini = 0.5\nsamples = 2\nvalue = [1, 1]", fillcolor="#ffffff"] ;
185 -> 186 ;
187 [label="gini = 0.0\nsamples = 1\nvalue = [1, 0]", fillcolor="#e58139"] ;
185 -> 187 ;
188 [label="gini = 0.0\nsamples = 3\nvalue = [3, 0]", fillcolor="#e58139"] ;
184 -> 188 ;
189 [label="age <= 26.5\ngini = 0.142\nsamples = 52\nvalue = [48, 4]", fillcolor="#e78c49"] ;
173 -> 189 ;
190 [label="gini = 0.0\nsamples = 23\nvalue = [23, 0]", fillcolor="#e58139"] ;
189 -> 190 ;
191 [label="fare <= 8.081\ngini = 0.238\nsamples = 29\nvalue = [25, 4]", fillcolor="#e99559"] ;
189 -> 191 ;
192 [label="gini = 0.0\nsamples = 14\nvalue = [14, 0]", fillcolor="#e58139"] ;
191 -> 192 ;
193 [label="fare <= 9.073\ngini = 0.391\nsamples = 15\nvalue = [11, 4]", fillcolor="#eeaf81"] ;
191 -> 193 ;
194 [label="age <= 27.5\ngini = 0.444\nsamples = 3\nvalue = [1, 2]", fillcolor="#9ccef2"] ;
193 -> 194 ;
195 [label="gini = 0.0\nsamples = 1\nvalue = [0, 1]", fillcolor="#399de5"] ;
194 -> 195 ;
196 [label="fare <= 8.388\ngini = 0.5\nsamples = 2\nvalue = [1, 1]", fillcolor="#ffffff"] ;
194 -> 196 ;
197 [label="gini = 0.0\nsamples = 1\nvalue = [0, 1]", fillcolor="#399de5"] ;
196 -> 197 ;
198 [label="gini = 0.0\nsamples = 1\nvalue = [1, 0]", fillcolor="#e58139"] ;
196 -> 198 ;
199 [label="age <= 29.5\ngini = 0.278\nsamples = 12\nvalue = [10, 2]", fillcolor="#ea9a61"] ;
193 -> 199 ;
200 [label="fare <= 11.75\ngini = 0.346\nsamples = 9\nvalue = [7, 2]", fillcolor="#eca572"] ;
199 -> 200 ;
201 [label="age <= 28.5\ngini = 0.245\nsamples = 7\nvalue = [6, 1]", fillcolor="#e9965a"] ;
200 -> 201 ;
202 [label="gini = 0.0\nsamples = 4\nvalue = [4, 0]", fillcolor="#e58139"] ;
201 -> 202 ;
203 [label="pclass <= 2.5\ngini = 0.444\nsamples = 3\nvalue = [2, 1]", fillcolor="#f2c09c"] ;
201 -> 203 ;
204 [label="gini = 0.0\nsamples = 1\nvalue = [1, 0]", fillcolor="#e58139"] ;
203 -> 204 ;
205 [label="fare <= 9.492\ngini = 0.5\nsamples = 2\nvalue = [1, 1]", fillcolor="#ffffff"] ;
203 -> 205 ;
206 [label="gini = 0.0\nsamples = 1\nvalue = [1, 0]", fillcolor="#e58139"] ;
205 -> 206 ;
207 [label="gini = 0.0\nsamples = 1\nvalue = [0, 1]", fillcolor="#399de5"] ;
205 -> 207 ;
208 [label="age <= 27.5\ngini = 0.5\nsamples = 2\nvalue = [1, 1]", fillcolor="#ffffff"] ;
200 -> 208 ;
209 [label="gini = 0.0\nsamples = 1\nvalue = [1, 0]", fillcolor="#e58139"] ;
208 -> 209 ;
210 [label="gini = 0.0\nsamples = 1\nvalue = [0, 1]", fillcolor="#399de5"] ;
208 -> 210 ;
211 [label="gini = 0.0\nsamples = 3\nvalue = [3, 0]", fillcolor="#e58139"] ;
199 -> 211 ;
212 [label="age <= 32.5\ngini = 0.31\nsamples = 47\nvalue = [38, 9]", fillcolor="#eb9f68"] ;
170 -> 212 ;
213 [label="age <= 31.5\ngini = 0.5\nsamples = 8\nvalue = [4, 4]", fillcolor="#ffffff"] ;
212 -> 213 ;
214 [label="gini = 0.0\nsamples = 1\nvalue = [0, 1]", fillcolor="#399de5"] ;
213 -> 214 ;
215 [label="fare <= 7.875\ngini = 0.49\nsamples = 7\nvalue = [4, 3]", fillcolor="#f8e0ce"] ;
213 -> 215 ;
216 [label="gini = 0.0\nsamples = 1\nvalue = [0, 1]", fillcolor="#399de5"] ;
215 -> 216 ;
217 [label="fare <= 7.91\ngini = 0.444\nsamples = 6\nvalue = [4, 2]", fillcolor="#f2c09c"] ;
215 -> 217 ;
218 [label="gini = 0.0\nsamples = 1\nvalue = [1, 0]", fillcolor="#e58139"] ;
217 -> 218 ;
219 [label="fare <= 8.206\ngini = 0.48\nsamples = 5\nvalue = [3, 2]", fillcolor="#f6d5bd"] ;
217 -> 219 ;
220 [label="fare <= 7.988\ngini = 0.5\nsamples = 4\nvalue = [2, 2]", fillcolor="#ffffff"] ;
219 -> 220 ;
221 [label="gini = 0.444\nsamples = 3\nvalue = [2, 1]", fillcolor="#f2c09c"] ;
220 -> 221 ;
222 [label="gini = 0.0\nsamples = 1\nvalue = [0, 1]", fillcolor="#399de5"] ;
220 -> 222 ;
223 [label="gini = 0.0\nsamples = 1\nvalue = [1, 0]", fillcolor="#e58139"] ;
219 -> 223 ;
224 [label="age <= 59.5\ngini = 0.224\nsamples = 39\nvalue = [34, 5]", fillcolor="#e99456"] ;
212 -> 224 ;
225 [label="age <= 45.5\ngini = 0.193\nsamples = 37\nvalue = [33, 4]", fillcolor="#e89051"] ;
224 -> 225 ;
226 [label="age <= 38.5\ngini = 0.252\nsamples = 27\nvalue = [23, 4]", fillcolor="#ea975b"] ;
225 -> 226 ;
227 [label="fare <= 12.637\ngini = 0.111\nsamples = 17\nvalue = [16, 1]", fillcolor="#e78945"] ;
226 -> 227 ;
228 [label="gini = 0.0\nsamples = 14\nvalue = [14, 0]", fillcolor="#e58139"] ;
227 -> 228 ;
229 [label="gini = 0.444\nsamples = 3\nvalue = [2, 1]", fillcolor="#f2c09c"] ;
227 -> 229 ;
230 [label="fare <= 7.988\ngini = 0.42\nsamples = 10\nvalue = [7, 3]", fillcolor="#f0b78e"] ;
226 -> 230 ;
231 [label="fare <= 7.91\ngini = 0.5\nsamples = 4\nvalue = [2, 2]", fillcolor="#ffffff"] ;
230 -> 231 ;
232 [label="gini = 0.0\nsamples = 1\nvalue = [1, 0]", fillcolor="#e58139"] ;
231 -> 232 ;
233 [label="age <= 41.5\ngini = 0.444\nsamples = 3\nvalue = [1, 2]", fillcolor="#9ccef2"] ;
231 -> 233 ;
234 [label="gini = 0.5\nsamples = 2\nvalue = [1, 1]", fillcolor="#ffffff"] ;
233 -> 234 ;
235 [label="gini = 0.0\nsamples = 1\nvalue = [0, 1]", fillcolor="#399de5"] ;
233 -> 235 ;
236 [label="fare <= 10.831\ngini = 0.278\nsamples = 6\nvalue = [5, 1]", fillcolor="#ea9a61"] ;
230 -> 236 ;
237 [label="gini = 0.0\nsamples = 3\nvalue = [3, 0]", fillcolor="#e58139"] ;
236 -> 237 ;
238 [label="age <= 40.5\ngini = 0.444\nsamples = 3\nvalue = [2, 1]", fillcolor="#f2c09c"] ;
236 -> 238 ;
239 [label="gini = 0.0\nsamples = 1\nvalue = [1, 0]", fillcolor="#e58139"] ;
238 -> 239 ;
240 [label="gini = 0.5\nsamples = 2\nvalue = [1, 1]", fillcolor="#ffffff"] ;
238 -> 240 ;
241 [label="gini = 0.0\nsamples = 10\nvalue = [10, 0]", fillcolor="#e58139"] ;
225 -> 241 ;
242 [label="age <= 66.0\ngini = 0.5\nsamples = 2\nvalue = [1, 1]", fillcolor="#ffffff"] ;
224 -> 242 ;
243 [label="gini = 0.0\nsamples = 1\nvalue = [0, 1]", fillcolor="#399de5"] ;
242 -> 243 ;
244 [label="gini = 0.0\nsamples = 1\nvalue = [1, 0]", fillcolor="#e58139"] ;
242 -> 244 ;
245 [label="sibsp <= 1.5\ngini = 0.067\nsamples = 58\nvalue = [56, 2]", fillcolor="#e68640"] ;
135 -> 245 ;
246 [label="fare <= 25.794\ngini = 0.036\nsamples = 54\nvalue = [53, 1]", fillcolor="#e5833d"] ;
245 -> 246 ;
247 [label="gini = 0.0\nsamples = 39\nvalue = [39, 0]", fillcolor="#e58139"] ;
246 -> 247 ;
248 [label="age <= 33.0\ngini = 0.124\nsamples = 15\nvalue = [14, 1]", fillcolor="#e78a47"] ;
246 -> 248 ;
249 [label="age <= 31.5\ngini = 0.278\nsamples = 6\nvalue = [5, 1]", fillcolor="#ea9a61"] ;
248 -> 249 ;
250 [label="gini = 0.0\nsamples = 5\nvalue = [5, 0]", fillcolor="#e58139"] ;
249 -> 250 ;
251 [label="gini = 0.0\nsamples = 1\nvalue = [0, 1]", fillcolor="#399de5"] ;
249 -> 251 ;
252 [label="gini = 0.0\nsamples = 9\nvalue = [9, 0]", fillcolor="#e58139"] ;
248 -> 252 ;
253 [label="embark_town <= 1.5\ngini = 0.375\nsamples = 4\nvalue = [3, 1]", fillcolor="#eeab7b"] ;
245 -> 253 ;
254 [label="gini = 0.0\nsamples = 1\nvalue = [0, 1]", fillcolor="#399de5"] ;
253 -> 254 ;
255 [label="gini = 0.0\nsamples = 3\nvalue = [3, 0]", fillcolor="#e58139"] ;
253 -> 255 ;
256 [label="fare <= 26.419\ngini = 0.434\nsamples = 107\nvalue = [73, 34]", fillcolor="#f1bc95"] ;
106 -> 256 ;
257 [label="gini = 0.0\nsamples = 2\nvalue = [0, 2]", fillcolor="#399de5"] ;
256 -> 257 ;
258 [label="fare <= 387.665\ngini = 0.424\nsamples = 105\nvalue = [73, 32]", fillcolor="#f0b890"] ;
256 -> 258 ;
259 [label="parch <= 0.5\ngini = 0.413\nsamples = 103\nvalue = [73.0, 30.0]", fillcolor="#f0b58a"] ;
258 -> 259 ;
260 [label="pclass <= 2.5\ngini = 0.45\nsamples = 76\nvalue = [50, 26]", fillcolor="#f3c3a0"] ;
259 -> 260 ;
261 [label="class <= 0.5\ngini = 0.431\nsamples = 70\nvalue = [48, 22]", fillcolor="#f1bb94"] ;
260 -> 261 ;
262 [label="age <= 27.5\ngini = 0.451\nsamples = 64\nvalue = [42, 22]", fillcolor="#f3c3a1"] ;
261 -> 262 ;
263 [label="age <= 23.5\ngini = 0.469\nsamples = 8\nvalue = [3, 5]", fillcolor="#b0d8f5"] ;
262 -> 263 ;
264 [label="gini = 0.0\nsamples = 3\nvalue = [3, 0]", fillcolor="#e58139"] ;
263 -> 264 ;
265 [label="gini = 0.0\nsamples = 5\nvalue = [0, 5]", fillcolor="#399de5"] ;
263 -> 265 ;
266 [label="fare <= 30.75\ngini = 0.423\nsamples = 56\nvalue = [39, 17]", fillcolor="#f0b88f"] ;
262 -> 266 ;
267 [label="age <= 53.5\ngini = 0.486\nsamples = 24\nvalue = [14, 10]", fillcolor="#f8dbc6"] ;
266 -> 267 ;
268 [label="age <= 46.75\ngini = 0.492\nsamples = 16\nvalue = [7, 9]", fillcolor="#d3e9f9"] ;
267 -> 268 ;
269 [label="fare <= 29.1\ngini = 0.497\nsamples = 13\nvalue = [7, 6]", fillcolor="#fbede3"] ;
268 -> 269 ;
270 [label="fare <= 27.135\ngini = 0.375\nsamples = 8\nvalue = [6, 2]", fillcolor="#eeab7b"] ;
269 -> 270 ;
271 [label="age <= 36.5\ngini = 0.5\nsamples = 4\nvalue = [2, 2]", fillcolor="#ffffff"] ;
270 -> 271 ;
272 [label="gini = 0.5\nsamples = 2\nvalue = [1, 1]", fillcolor="#ffffff"] ;
271 -> 272 ;
273 [label="gini = 0.5\nsamples = 2\nvalue = [1, 1]", fillcolor="#ffffff"] ;
271 -> 273 ;
274 [label="gini = 0.0\nsamples = 4\nvalue = [4, 0]", fillcolor="#e58139"] ;
270 -> 274 ;
275 [label="age <= 28.5\ngini = 0.32\nsamples = 5\nvalue = [1, 4]", fillcolor="#6ab6ec"] ;
269 -> 275 ;
276 [label="gini = 0.0\nsamples = 3\nvalue = [0, 3]", fillcolor="#399de5"] ;
275 -> 276 ;
277 [label="embarked <= 1.0\ngini = 0.5\nsamples = 2\nvalue = [1, 1]", fillcolor="#ffffff"] ;
275 -> 277 ;
278 [label="gini = 0.0\nsamples = 1\nvalue = [0, 1]", fillcolor="#399de5"] ;
277 -> 278 ;
279 [label="gini = 0.0\nsamples = 1\nvalue = [1, 0]", fillcolor="#e58139"] ;
277 -> 279 ;
280 [label="gini = 0.0\nsamples = 3\nvalue = [0, 3]", fillcolor="#399de5"] ;
268 -> 280 ;
281 [label="age <= 72.5\ngini = 0.219\nsamples = 8\nvalue = [7, 1]", fillcolor="#e99355"] ;
267 -> 281 ;
282 [label="gini = 0.0\nsamples = 7\nvalue = [7, 0]", fillcolor="#e58139"] ;
281 -> 282 ;
283 [label="gini = 0.0\nsamples = 1\nvalue = [0, 1]", fillcolor="#399de5"] ;
281 -> 283 ;
284 [label="age <= 47.5\ngini = 0.342\nsamples = 32\nvalue = [25, 7]", fillcolor="#eca470"] ;
266 -> 284 ;
285 [label="age <= 40.0\ngini = 0.219\nsamples = 24\nvalue = [21, 3]", fillcolor="#e99355"] ;
284 -> 285 ;
286 [label="age <= 37.0\ngini = 0.291\nsamples = 17\nvalue = [14, 3]", fillcolor="#eb9c63"] ;
285 -> 286 ;
287 [label="fare <= 37.55\ngini = 0.219\nsamples = 16\nvalue = [14, 2]", fillcolor="#e99355"] ;
286 -> 287 ;
288 [label="fare <= 35.25\ngini = 0.444\nsamples = 3\nvalue = [2, 1]", fillcolor="#f2c09c"] ;
287 -> 288 ;
289 [label="gini = 0.0\nsamples = 2\nvalue = [2, 0]", fillcolor="#e58139"] ;
288 -> 289 ;
290 [label="gini = 0.0\nsamples = 1\nvalue = [0, 1]", fillcolor="#399de5"] ;
288 -> 290 ;
291 [label="age <= 30.0\ngini = 0.142\nsamples = 13\nvalue = [12, 1]", fillcolor="#e78c49"] ;
287 -> 291 ;
292 [label="gini = 0.0\nsamples = 8\nvalue = [8, 0]", fillcolor="#e58139"] ;
291 -> 292 ;
293 [label="fare <= 54.5\ngini = 0.32\nsamples = 5\nvalue = [4, 1]", fillcolor="#eca06a"] ;
291 -> 293 ;
294 [label="gini = 0.0\nsamples = 3\nvalue = [3, 0]", fillcolor="#e58139"] ;
293 -> 294 ;
295 [label="fare <= 67.925\ngini = 0.5\nsamples = 2\nvalue = [1, 1]", fillcolor="#ffffff"] ;
293 -> 295 ;
296 [label="gini = 0.0\nsamples = 1\nvalue = [0, 1]", fillcolor="#399de5"] ;
295 -> 296 ;
297 [label="gini = 0.0\nsamples = 1\nvalue = [1, 0]", fillcolor="#e58139"] ;
295 -> 297 ;
298 [label="gini = 0.0\nsamples = 1\nvalue = [0, 1]", fillcolor="#399de5"] ;
286 -> 298 ;
299 [label="gini = 0.0\nsamples = 7\nvalue = [7, 0]", fillcolor="#e58139"] ;
285 -> 299 ;
300 [label="age <= 49.5\ngini = 0.5\nsamples = 8\nvalue = [4, 4]", fillcolor="#ffffff"] ;
284 -> 300 ;
301 [label="gini = 0.0\nsamples = 2\nvalue = [0, 2]", fillcolor="#399de5"] ;
300 -> 301 ;
302 [label="fare <= 120.037\ngini = 0.444\nsamples = 6\nvalue = [4, 2]", fillcolor="#f2c09c"] ;
300 -> 302 ;
303 [label="embark_town <= 1.0\ngini = 0.32\nsamples = 5\nvalue = [4, 1]", fillcolor="#eca06a"] ;
302 -> 303 ;
304 [label="fare <= 70.963\ngini = 0.5\nsamples = 2\nvalue = [1, 1]", fillcolor="#ffffff"] ;
303 -> 304 ;
305 [label="gini = 0.0\nsamples = 1\nvalue = [0, 1]", fillcolor="#399de5"] ;
304 -> 305 ;
306 [label="gini = 0.0\nsamples = 1\nvalue = [1, 0]", fillcolor="#e58139"] ;
304 -> 306 ;
307 [label="gini = 0.0\nsamples = 3\nvalue = [3, 0]", fillcolor="#e58139"] ;
303 -> 307 ;
308 [label="gini = 0.0\nsamples = 1\nvalue = [0, 1]", fillcolor="#399de5"] ;
302 -> 308 ;
309 [label="gini = 0.0\nsamples = 6\nvalue = [6, 0]", fillcolor="#e58139"] ;
261 -> 309 ;
310 [label="age <= 30.0\ngini = 0.444\nsamples = 6\nvalue = [2, 4]", fillcolor="#9ccef2"] ;
260 -> 310 ;
311 [label="age <= 27.0\ngini = 0.5\nsamples = 4\nvalue = [2, 2]", fillcolor="#ffffff"] ;
310 -> 311 ;
312 [label="gini = 0.0\nsamples = 1\nvalue = [0, 1]", fillcolor="#399de5"] ;
311 -> 312 ;
313 [label="gini = 0.444\nsamples = 3\nvalue = [2, 1]", fillcolor="#f2c09c"] ;
311 -> 313 ;
314 [label="gini = 0.0\nsamples = 2\nvalue = [0, 2]", fillcolor="#399de5"] ;
310 -> 314 ;
315 [label="age <= 18.0\ngini = 0.252\nsamples = 27\nvalue = [23, 4]", fillcolor="#ea975b"] ;
259 -> 315 ;
316 [label="gini = 0.0\nsamples = 1\nvalue = [0, 1]", fillcolor="#399de5"] ;
315 -> 316 ;
317 [label="age <= 33.5\ngini = 0.204\nsamples = 26\nvalue = [23, 3]", fillcolor="#e89153"] ;
315 -> 317 ;
318 [label="gini = 0.0\nsamples = 12\nvalue = [12, 0]", fillcolor="#e58139"] ;
317 -> 318 ;
319 [label="age <= 37.5\ngini = 0.337\nsamples = 14\nvalue = [11, 3]", fillcolor="#eca36f"] ;
317 -> 319 ;
320 [label="fare <= 41.127\ngini = 0.5\nsamples = 4\nvalue = [2, 2]", fillcolor="#ffffff"] ;
319 -> 320 ;
321 [label="gini = 0.0\nsamples = 2\nvalue = [2, 0]", fillcolor="#e58139"] ;
320 -> 321 ;
322 [label="gini = 0.0\nsamples = 2\nvalue = [0, 2]", fillcolor="#399de5"] ;
320 -> 322 ;
323 [label="embarked <= 1.0\ngini = 0.18\nsamples = 10\nvalue = [9, 1]", fillcolor="#e88f4f"] ;
319 -> 323 ;
324 [label="age <= 55.5\ngini = 0.444\nsamples = 3\nvalue = [2, 1]", fillcolor="#f2c09c"] ;
323 -> 324 ;
325 [label="gini = 0.0\nsamples = 2\nvalue = [2, 0]", fillcolor="#e58139"] ;
324 -> 325 ;
326 [label="gini = 0.0\nsamples = 1\nvalue = [0, 1]", fillcolor="#399de5"] ;
324 -> 326 ;
327 [label="gini = 0.0\nsamples = 7\nvalue = [7, 0]", fillcolor="#e58139"] ;
323 -> 327 ;
328 [label="gini = 0.0\nsamples = 2\nvalue = [0, 2]", fillcolor="#399de5"] ;
258 -> 328 ;
}